-0.34920043783715093 -0.4374906800378924 1.7907466619345191 -0.33198612785314785 -0.3285167868151535 2.07505087764857 -0.9768995389912766 -1.8312634528245537 0.4259821595794788 2.256431836991199 -0.1840177502708471 0.640608412226728 0.9399809460216962 0.9344086845847653 1.5083557105649898 
-0.7407467369734598 2.052525991434399 -0.33407312916565124 -1.6645920984480072 0.5996232314741049 -0.8554705419006906 -1.823789157606497 1.7888488523379713 0.16740904931933534 0.04647714004137405 0.7971878079620888 -0.0827549122185874 1.1620743327186533 2.1425160616516696 0.6864567056174332 
-0.6055736485634803 2.3170571753017795 1.7072045073108342 -1.3553616248148854 0.44265931666148034 -0.9208247908517989 0.6414067135569542 -0.8459864681144457 0.8135780756284542 -0.17088998864041205 -2.4202042228270395 -2.587623012288243 0.3903436811993662 -0.3886252580731923 1.9630239452839318 
1.0341939441842694 1.0640596418352797 -0.6906529178457385 -2.253260935986572 -0.5556616429419651 0.26889068363660024 0.48914611219696996 -0.15996288158401512 0.6492526261225339 -1.0448462788991317 -0.20340257399244063 0.5542070876567012 1.2224245271156782 1.537401520015268 0.793682201906858 
-0.032857153419946786 -0.9088075487728986 0.3321470796146718 0.3460250804523244 -0.06616201811222923 2.0893594549652836 1.7175586075495826 -0.18752776860241413 1.1013821114993734 -0.03840243154978436 -0.8188491682371624 1.074015633840621 0.3725847381629056 -0.3869567701539899 2.5331860147596212 
0.1590966369295327 1.0917023101066616 0.3111928242360949 2.4665574503128105 0.43805157961188707 -0.5335505234516225 1.887918070744979 -0.2050397135394643 -0.28422707460315016 -1.838626466463509 -0.571555742811336 0.043724588281263785 1.3047057808928357 0.4788136302675801 1.0599770903524324 
1.3773520051391344 0.5369520624842937 2.0402277500314345 0.5014802754290723 -2.052511757013179 0.4361788523912729 -0.7866009424985435 0.9096334556741829 0.22765489877568046 -0.2349736198396345 0.20196573687125624 1.308561246039398 1.1220220426608438 0.7683870156457434 1.6347340418164655 
0.6182087620455642 1.3689292317568178 1.0970492959992972 0.41604267352951657 0.38942862395970407 -1.1787602407227564 -1.0607705867072728 -1.5723914240207284 2.5393962170600846 -1.0214613142342346 -0.8087650396595031 0.25339062648064153 -0.40216402061105655 -2.2611784327658073 -0.19969175029931027 
0.3435238346192929 0.7379501859427413 0.6915122227285657 2.1326048680602825 -2.525461038432201 0.5949415970539542 0.955153707897439 -0.09962377747033485 -0.06362544659820521 0.9324994004259861 -1.0497904124682274 -0.9019211455008804 1.8710813310026442 0.031106602552923936 0.019482731496441485 
-0.6654193905130974 2.7072150445509413 1.5647023794951296 0.1835089069359902 0.07139527947980846 0.7561877869048956 0.7864616411619172 0.30995673950192804 -0.7117385777441945 -0.20649690342549606 -1.4698304687068844 0.3885213217060467 2.291764474274669 1.5260814511143304 0.07767655450723898 
